iARPA

\data\
ngram 1=	43
ngram 2=	1167

\1-grams:
-4.401814	<s>	-2.866878
-1.234940	sil	-1.954096
-1.712505	dh	-2.039634
-1.309795	ih	-2.074329
-1.340927	s	-1.789061
-1.791686	w	-1.771902
-1.803023	ao	-1.498311
-1.501720	z	-1.666250
-1.326998	iy	-1.814176
-1.781157	f	-1.419505
-1.325538	r	-1.804211
-1.549029	er	-1.608050
-1.121919	ah	-2.121707
-1.535822	</s>	-3.167022
-2.035391	jh	-1.165750
-1.804667	ey	-1.384448
-1.268754	n	-1.871604
-1.574445	m	-1.571677
-1.696806	b	-1.441819
-1.792753	ay	-1.383815
-1.449748	k	-1.682193
-2.047706	ng	-1.178797
-2.004743	hh	-1.563142
-1.693818	aa	-1.695231
-1.465552	d	-1.689703
-2.051566	sh	-1.162727
-2.199053	th	-1.064458
-1.687904	ae	-1.701033
-1.653626	eh	-1.755494
-1.840713	v	-1.349906
-1.997836	y	-1.712650
-1.375894	l	-1.754670
-1.896664	ow	-1.308855
-1.250291	t	-1.889831
-1.739528	uw	-1.411802
-1.920371	g	-1.239333
-2.276333	aw	-1.135663
-2.388977	uh	-1.376171
-1.602129	p	-1.544738
-2.132301	ch	-1.053292
-2.547508	oy	-0.928072
-2.962481	zh	-0.889302
-3.069375 <unk>
\2-grams:
-2.866878	<s> <s>
-0.001182	<s> sil
-0.931031	sil dh
-1.849361	sil ih
-1.673270	sil s
-1.455577	sil w
-2.431218	sil ao
-2.171580	sil iy
-2.431218	sil f
-1.839142	sil r
-2.995489	sil er
-1.528128	sil ah
-0.305884	sil </s>
-2.041246	sil jh
-2.472610	sil n
-1.748334	sil m
-1.724422	sil b
-1.839142	sil ay
-1.580516	sil k
-1.543191	sil hh
-2.431218	sil aa
-1.653066	sil d
-1.941131	sil sh
-3.171580	sil th
-1.849361	sil ae
-2.296519	sil eh
-2.694459	sil v
-2.242161	sil y
-2.326482	sil l
-2.569520	sil ow
-1.716735	sil t
-1.967460	sil g
-2.870550	sil aw
-1.701758	sil p
-2.268490	sil ch
-1.340664	dh ih
-0.134739	dh iy
-1.350424	dh er
-2.391817	dh ah
-1.578904	dh ey
-1.952484	dh d
-1.245689	dh ae
-1.321779	dh eh
-1.671658	dh ow
-2.250420	ih dh
-1.120086	ih s
-1.005613	ih z
-1.557699	ih f
-1.488063	ih r
-1.965184	ih jh
-0.808837	ih n
-1.467129	ih m
-2.095518	ih b
-0.952503	ih k
-0.865069	ih ng
-1.477470	ih d
-1.392227	ih sh
-1.423420	ih th
-1.467129	ih v
-1.232195	ih l
-1.618397	ih t
-1.477470	ih g
-1.633120	ih p
-2.141276	ih ch
-2.551450	ih zh
-1.201527	s sil
-1.988633	s dh
-1.162019	s ih
-1.756061	s s
-1.562665	s w
-1.837366	s ao
-2.891723	s z
-1.488031	s iy
-1.824776	s f
-1.970904	s r
-1.605417	s er
-0.945599	s ah
-2.766785	s jh
-2.090091	s ey
-2.138396	s n
-1.612970	s m
-1.937481	s b
-1.669875	s ay
-1.081043	s k
-2.067815	s hh
-1.789061	s aa
-1.988633	s d
-2.046625	s sh
-2.523746	s th
-2.113572	s ae
-1.669875	s eh
-2.891723	s v
-2.222716	s y
-1.669875	s l
-2.164725	s ow
-0.653677	s t
-1.921686	s uw
-2.368845	s g
-2.523746	s aw
-2.891723	s uh
-1.201527	s p
-2.113572	s ch
-2.590693	s oy
-0.619177	w ih
-0.716633	w ao
-1.072932	w iy
-1.210460	w er
-1.255273	w ah
-1.072932	w ey
-1.169842	w ay
-1.361728	w aa
-1.079181	w eh
-2.315970	w ow
-2.440909	w uw
-2.440909	w aw
-1.326966	w uh
-1.963788	w oy
-2.135133	ao ih
-1.515344	ao s
-2.311224	ao ao
-0.959041	ao z
-2.436163	ao iy
-1.466126	ao f
-0.346258	ao r
-2.436163	ao jh
-2.436163	ao ey
-1.959041	ao n
-2.311224	ao m
-1.767156	ao k
-1.515344	ao ng
-2.214314	ao hh
-2.311224	ao aa
-2.214314	ao d
-2.436163	ao sh
-1.871891	ao th
-2.311224	ao eh
-2.135133	ao y
-0.823379	ao l
-2.436163	ao ow
-1.408134	ao t
-2.135133	ao g
-2.436163	ao aw
-2.214314	ao p
-0.731752	z sil
-1.867896	z dh
-1.061099	z ih
-1.404139	z s
-1.557106	z w
-2.131137	z ao
-1.597535	z iy
-1.462130	z f
-1.763160	z r
-1.795345	z er
-0.886036	z ah
-2.168926	z jh
-1.848591	z ey
-1.763160	z n
-1.597535	z m
-1.511349	z b
-2.432167	z ay
-1.538221	z k
-1.520122	z hh
-1.462130	z aa
-1.397405	z d
-1.830107	z sh
-2.006199	z th
-1.848591	z ae
-1.830107	z eh
-2.365220	z v
-1.812379	z y
-2.131137	z l
-2.307229	z ow
-1.576850	z t
-2.365220	z uw
-1.733197	z g
-2.608259	z aw
-1.678840	z p
-2.307229	z ch
-1.310495	iy sil
-2.039955	iy dh
-1.649984	iy ih
-1.074881	iy s
-1.543528	iy w
-2.303196	iy ao
-1.224015	iy z
-2.081347	iy iy
-1.479287	iy f
-1.814176	iy r
-2.002166	iy er
-1.261803	iy ah
-2.127105	iy jh
-2.002166	iy ey
-1.437895	iy n
-1.391151	iy m
-1.423336	iy b
-2.127105	iy ay
-1.183720	iy k
-1.692181	iy hh
-1.738925	iy aa
-1.409249	iy d
-2.127105	iy sh
-2.303196	iy th
-1.583037	iy ae
-1.850898	iy eh
-1.479287	iy v
-2.340985	iy y
-1.437895	iy l
-1.701136	iy ow
-1.268434	iy t
-1.658101	iy g
-2.303196	iy aw
-1.151928	iy p
-1.701136	iy ch
-2.537279	iy oy
-2.780317	iy zh
-1.761928	f sil
-2.335959	f dh
-1.138679	f ih
-1.659265	f s
-2.335959	f w
-1.111944	f ao
-1.523046	f iy
-2.335959	f f
-0.591666	f r
-1.275261	f er
-1.034929	f ah
-1.576291	f ey
-2.636989	f n
-2.636989	f m
-2.335959	f b
-1.615800	f ay
-1.896626	f k
-1.707570	f aa
-2.335959	f d
-1.938019	f th
-1.791891	f ae
-1.540079	f eh
-2.335959	f v
-1.540079	f y
-1.406540	f l
-2.034929	f ow
-1.358236	f t
-2.239049	f uw
-2.335959	f g
-1.824076	f aw
-2.034929	f uh
-2.034929	f p
-2.335959	f ch
-1.865481	r sil
-1.906874	r dh
-1.188095	r ih
-1.740542	r s
-1.827692	r w
-1.730782	r ao
-2.003784	r z
-0.917127	r iy
-2.022267	r f
-2.429752	r r
-1.301209	r er
-0.869447	r ah
-1.740542	r jh
-1.420207	r ey
-1.711897	r n
-1.628120	r m
-1.760745	r b
-1.503181	r ay
-1.685025	r k
-2.906874	r hh
-1.439512	r aa
-1.366961	r d
-2.906874	r sh
-2.906874	r th
-1.415512	r ae
-1.244116	r eh
-2.538897	r v
-2.270051	r y
-1.643632	r l
-1.383995	r ow
-1.538897	r t
-1.470181	r uw
-1.969021	r g
-2.429752	r aw
-2.906874	r uh
-2.304814	r p
-2.207904	r ch
-2.429752	r oy
-1.214963	er sil
-1.645839	er dh
-1.416165	er ih
-1.465383	er s
-1.325504	er w
-1.863323	er ao
-0.988262	er z
-1.307020	er iy
-1.608050	er f
-1.933904	er r
-1.988262	er er
-1.229854	er ah
-1.909080	er jh
-1.732989	er ey
-1.573288	er n
-1.400925	er m
-1.431959	er b
-1.821930	er ay
-1.431959	er k
-1.645839	er hh
-1.909080	er aa
-1.210110	er d
-2.050410	er sh
-1.842134	er th
-2.018225	er ae
-1.960233	er eh
-1.596151	er v
-2.122960	er y
-1.596151	er l
-2.386202	er ow
-1.400925	er t
-1.960233	er g
-1.909080	er aw
-1.732989	er p
-1.562293	er ch
-2.562293	er oy
-2.470162	ah sil
-2.152741	ah dh
-3.106984	ah ih
-1.155970	ah s
-2.186165	ah w
-1.512223	ah z
-1.798775	ah f
-2.241682	ah r
-3.283075	ah ah
-1.654686	ah jh
-0.564989	ah n
-1.104098	ah m
-1.353656	ah b
-2.982045	ah ay
-1.437977	ah k
-1.982045	ah ng
-2.203894	ah hh
-2.739007	ah aa
-1.413843	ah d
-2.681015	ah sh
-2.305351	ah th
-3.106984	ah eh
-1.374590	ah v
-2.739007	ah y
-0.822177	ah l
-1.180984	ah t
-1.692010	ah g
-1.385448	ah p
-1.993040	ah ch
-1.250071	jh sil
-1.852131	jh dh
-1.140927	jh ih
-2.220108	jh s
-2.095169	jh w
-1.742987	jh ao
-1.335502	jh iy
-2.220108	jh f
-2.095169	jh r
-1.192079	jh er
-0.688629	jh ah
-1.998259	jh jh
-1.852131	jh ey
-2.095169	jh n
-1.852131	jh m
-2.095169	jh b
-2.095169	jh ay
-2.095169	jh k
-2.396199	jh hh
-1.618048	jh aa
-1.317018	jh d
-2.095169	jh sh
-2.697229	jh th
-1.852131	jh ae
-1.015988	jh eh
-2.095169	jh y
-2.095169	jh l
-2.396199	jh ow
-1.551101	jh t
-1.441957	jh uw
-2.095169	jh g
-1.618048	jh p
-1.852131	jh ch
-1.521138	jh oy
-1.769799	ey sil
-1.739836	ey ih
-1.292678	ey s
-2.137776	ey w
-1.801984	ey ao
-1.336144	ey z
-1.769799	ey f
-2.614897	ey r
-2.137776	ey er
-1.836746	ey ah
-1.660655	ey jh
-2.438806	ey ey
-0.947444	ey n
-1.397413	ey m
-1.554199	ey b
-2.313867	ey ay
-1.225731	ey k
-2.614897	ey hh
-2.313867	ey aa
-1.303143	ey d
-1.103014	ey sh
-2.438806	ey th
-2.070829	ey ae
-1.874535	ey eh
-1.614897	ey v
-2.614897	ey y
-1.500954	ey l
-1.769799	ey ow
-0.731236	ey t
-1.915927	ey g
-2.438806	ey aw
-1.438806	ey p
-2.070829	ey ch
-2.070829	ey zh
-1.375348	n sil
-1.406382	n dh
-1.312701	n ih
-1.132310	n s
-1.992648	n w
-2.059595	n ao
-1.235686	n z
-1.375348	n iy
-1.767708	n f
-2.439806	n r
-1.647415	n er
-1.101350	n ah
-1.777048	n jh
-2.138776	n ey
-2.209357	n n
-1.883504	n m
-1.786594	n b
-1.732236	n ay
-1.796354	n k
-1.948445	n hh
-1.620262	n aa
-0.866935	n d
-2.117587	n sh
-2.536716	n th
-1.948445	n ae
-1.691618	n eh
-2.661655	n v
-2.041866	n y
-1.934656	n l
-1.962685	n ow
-0.818630	n t
-1.908327	n uw
-2.078078	n g
-2.594708	n aw
-1.934656	n p
-1.977408	n ch
-2.536716	n oy
-1.340539	m sil
-1.571677	m dh
-1.288621	m ih
-1.838849	m s
-2.025936	m w
-1.506411	m ao
-1.276556	m z
-1.458638	m iy
-1.708515	m f
-2.361728	m r
-1.571677	m er
-0.765131	m ah
-2.537819	m jh
-1.276556	m ey
-2.185637	m n
-1.677481	m m
-1.415603	m b
-1.231394	m ay
-1.759668	m k
-2.236789	m hh
-1.993751	m aa
-2.185637	m d
-2.662758	m sh
-2.440909	m th
-1.571677	m ae
-1.467781	m eh
-2.838849	m v
-1.548814	m y
-1.935759	m l
-1.571677	m ow
-1.838849	m t
-1.608400	m uw
-2.294781	m g
-2.662758	m aw
-1.127042	m p
-2.662758	m ch
-2.236789	m oy
-2.243451	b sil
-2.419543	b dh
-0.960905	b ih
-2.176505	b s
-2.118513	b w
-1.766330	b ao
-1.907659	b z
-1.107789	b iy
-2.419543	b f
-1.057815	b r
-1.419543	b er
-0.917799	b ah
-2.021603	b jh
-2.176505	b ey
-2.720573	b n
-2.544481	b m
-2.118513	b b
-1.057815	b ay
-2.243451	b k
-2.720573	b hh
-1.215423	b aa
-1.875475	b d
-2.720573	b sh
-2.419543	b th
-1.453401	b ae
-1.297327	b eh
-2.544481	b v
-1.530241	b y
-1.170344	b l
-1.590239	b ow
-1.875475	b t
-2.720573	b uw
-2.419543	b g
-2.176505	b aw
-2.021603	b uh
-2.176505	b p
-2.544481	b ch
-1.875475	b oy
-2.149732	ay sil
-1.848702	ay dh
-1.649130	ay ih
-1.164455	ay s
-2.149732	ay w
-1.848702	ay ao
-1.228913	ay z
-1.751792	ay iy
-2.228913	ay f
-1.813940	ay r
-1.336819	ay er
-1.172009	ay ah
-2.450762	ay jh
-1.848702	ay ey
-1.179695	ay n
-1.220313	ay m
-1.512910	ay b
-1.927883	ay ay
-1.228913	ay k
-2.149732	ay hh
-1.751792	ay aa
-1.172009	ay d
-2.325823	ay sh
-1.547672	ay ae
-2.024793	ay eh
-1.422733	ay v
-2.149732	ay y
-1.255786	ay l
-2.082785	ay ow
-1.008805	ay t
-2.325823	ay uw
-2.228913	ay g
-2.082785	ay p
-2.450762	ay ch
-2.325823	ay oy
-1.784855	k sil
-2.182795	k dh
-1.599218	k ih
-0.997158	k s
-1.298188	k w
-1.649192	k ao
-2.960946	k z
-1.864036	k iy
-1.960946	k f
-1.293493	k r
-1.599218	k er
-0.763666	k ah
-2.784855	k jh
-1.830612	k ey
-2.358886	k n
-2.115848	k m
-2.416878	k b
-2.261976	k ay
-1.900248	k k
-2.358886	k hh
-1.232592	k aa
-1.960946	k d
-2.057856	k sh
-2.416878	k th
-1.172071	k ae
-1.743462	k eh
-2.784855	k v
-1.462636	k y
-1.232592	k l
-1.659916	k ow
-1.088790	k t
-1.900248	k uw
-2.307734	k g
-1.864036	k aw
-1.960946	k uh
-1.830612	k p
-2.659916	k ch
-2.358886	k oy
-0.935759	ng sil
-1.604766	ng dh
-1.011849	ng ih
-1.192585	ng s
-1.570004	ng w
-1.905796	ng ao
-1.479827	ng z
-2.683947	ng iy
-1.507856	ng f
-1.453498	ng r
-1.905796	ng er
-1.984977	ng ah
-2.081887	ng jh
-2.206826	ng ey
-1.905796	ng n
-1.905796	ng m
-1.984977	ng b
-1.002706	ng k
-1.286007	ng hh
-2.081887	ng aa
-1.537819	ng d
-1.905796	ng sh
-2.081887	ng th
-1.683947	ng ae
-1.984977	ng v
-1.604766	ng y
-1.905796	ng l
-1.604766	ng t
-1.115745	ng g
-2.081887	ng aw
-1.642554	ng p
-2.081887	ng ch
-0.864172	hh ih
-1.311330	hh ao
-1.177791	hh iy
-0.976876	hh er
-1.595327	hh ah
-1.204120	hh ay
-1.046512	hh aa
-0.683964	hh ae
-1.262112	hh eh
-1.533179	hh y
-1.630089	hh ow
-1.453997	hh uw
-1.177791	hh aw
-1.667877	hh uh
-1.383982	aa s
-1.675028	aa z
-1.903507	aa f
-0.513660	aa r
-1.473383	aa jh
-0.920541	aa n
-1.394201	aa m
-1.415391	aa b
-1.184942	aa k
-2.540329	aa ng
-1.619511	aa d
-2.017451	aa sh
-2.540329	aa th
-2.415391	aa ae
-2.172353	aa v
-1.301447	aa l
-1.017451	aa t
-1.976058	aa g
-1.211271	aa p
-1.762178	aa ch
-1.813331	aa zh
-1.263735	d sil
-1.538436	d dh
-0.773249	d ih
-1.513612	d s
-1.740856	d w
-1.903583	d ao
-1.538436	d z
-1.400908	d iy
-1.538436	d f
-1.224817	d r
-1.460676	d er
-0.901614	d ah
-2.342916	d jh
-1.505643	d ey
-1.831033	d n
-2.069915	d m
-1.348379	d b
-1.944976	d ay
-1.903583	d k
-1.783608	d hh
-1.831033	d aa
-2.015557	d d
-2.944976	d sh
-2.041886	d th
-1.612537	d ae
-1.740856	d eh
-2.291763	d v
-1.884278	d y
-1.923787	d l
-1.814642	d ow
-1.592793	d t
-1.583248	d uw
-2.400908	d g
-1.798848	d aw
-2.041886	d p
-2.768885	d ch
-1.836143	sh sil
-1.380211	sh ih
-1.778151	sh s
-1.338819	sh ao
-2.204120	sh z
-1.137173	sh iy
-1.836143	sh f
-1.726999	sh r
-1.778151	sh er
-0.402488	sh ah
-1.836143	sh ey
-2.380211	sh n
-2.079181	sh m
-2.681241	sh b
-2.204120	sh ay
-2.380211	sh k
-1.778151	sh aa
-2.681241	sh d
-2.380211	sh sh
-2.204120	sh th
-2.079181	sh ae
-1.602060	sh eh
-2.204120	sh v
-2.380211	sh y
-1.836143	sh l
-1.602060	sh ow
-1.505150	sh t
-1.778151	sh uw
-2.204120	sh g
-2.380211	sh aw
-1.204120	sh uh
-2.204120	sh p
-2.079181	sh ch
-1.696481	th sil
-1.427636	th dh
-0.834009	th ih
-1.462398	th s
-2.064458	th w
-1.763428	th ao
-2.240549	th z
-1.143639	th iy
-1.462398	th f
-0.939519	th r
-1.079181	th er
-1.286307	th ah
-2.064458	th jh
-1.939519	th n
-1.939519	th m
-1.842609	th b
-1.462398	th k
-1.696481	th hh
-2.240549	th aa
-1.541579	th d
-2.240549	th th
-1.696481	th ae
-1.638489	th eh
-1.763428	th v
-2.064458	th y
-1.939519	th l
-2.064458	th t
-1.638489	th aw
-1.587337	th p
-2.064458	th ch
-2.546131	ae dh
-1.290859	ae s
-1.290859	ae z
-1.298977	ae f
-2.023252	ae r
-2.245101	ae jh
-0.652185	ae n
-1.142439	ae m
-1.608279	ae b
-1.054770	ae k
-1.531891	ae ng
-1.443469	ae d
-1.767980	ae sh
-2.023252	ae th
-1.324282	ae v
-1.104174	ae l
-0.958794	ae t
-1.591889	ae g
-1.491774	ae p
-1.909309	ae ch
-2.421192	ae zh
-2.056524	eh dh
-1.088041	eh s
-1.942580	eh z
-1.942580	eh f
-0.791706	eh r
-1.641550	eh jh
-0.849698	eh n
-1.250344	eh m
-2.211426	eh b
-0.988338	eh k
-1.977342	eh ng
-1.324130	eh d
-1.714101	eh sh
-1.158897	eh v
-0.886262	eh l
-1.217675	eh t
-1.694796	eh g
-1.880432	eh p
-2.454464	eh ch
-2.357554	eh zh
-2.279325	v sil
-1.337317	v dh
-1.200143	v ih
-1.802203	v s
-1.839992	v w
-1.927142	v ao
-1.418987	v z
-1.290320	v iy
-1.677265	v f
-1.881385	v r
-0.764113	v er
-0.957105	v ah
-2.279325	v jh
-1.519657	v ey
-1.519657	v n
-1.705293	v m
-2.404263	v b
-1.881385	v ay
-1.677265	v k
-1.650936	v hh
-2.279325	v aa
-1.927142	v d
-2.404263	v sh
-1.279325	v ae
-1.279325	v eh
-2.404263	v v
-1.705293	v y
-1.881385	v l
-1.767441	v ow
-1.767441	v t
-2.279325	v aw
-1.519657	v p
-2.279325	v ch
-2.036287	v oy
-1.566522	y ih
-0.988374	y ao
-2.110590	y iy
-1.712650	y er
-0.739522	y ah
-1.758407	y aa
-1.566522	y eh
-2.235528	y ow
-0.274899	y uw
-1.221288	y uh
-1.389971	l sil
-1.972726	l dh
-1.179118	l ih
-1.662356	l s
-1.635484	l w
-1.662356	l ao
-1.338819	l z
-0.895121	l iy
-1.644258	l f
-2.079181	l r
-1.535113	l er
-0.903090	l ah
-2.732394	l jh
-1.465222	l ey
-2.158362	l n
-1.887296	l m
-1.972726	l b
-1.425969	l ay
-1.872056	l k
-2.293061	l hh
-1.465222	l aa
-1.266268	l d
-2.556303	l sh
-1.992031	l th
-1.431364	l ae
-1.415376	l eh
-2.334454	l v
-1.887296	l y
-2.380211	l l
-1.571026	l ow
-1.602060	l t
-1.887296	l uw
-2.130334	l g
-1.754670	l aw
-2.220510	l uh
-1.766252	l p
-2.489356	l ch
-2.635484	l oy
-1.785977	ow sil
-2.350248	ow dh
-1.681241	ow ih
-1.204120	ow s
-2.049218	ow w
-1.982271	ow ao
-1.021189	ow z
-1.982271	ow f
-2.350248	ow er
-1.713426	ow ah
-2.049218	ow ey
-0.924279	ow n
-1.447158	ow m
-1.681241	ow b
-2.225309	ow ay
-1.259168	ow k
-1.982271	ow hh
-1.873127	ow aa
-1.873127	ow d
-1.596920	ow sh
-1.713426	ow th
-2.350248	ow ae
-2.827369	ow eh
-1.146128	ow v
-0.946556	ow l
-2.526339	ow ow
-1.128399	ow t
-1.827369	ow g
-1.873127	ow aw
-1.364971	ow p
-1.785977	ow ch
-2.350248	ow oy
-1.982271	ow zh
-1.281942	t sil
-1.588801	t dh
-1.018700	t ih
-1.094421	t s
-1.694605	t w
-1.939519	t ao
-2.980912	t z
-1.267701	t iy
-1.939519	t f
-1.113641	t r
-1.245846	t er
-0.950177	t ah
-2.416641	t jh
-1.679882	t ey
-2.202761	t n
-2.010875	t m
-1.702158	t b
-1.687181	t ay
-1.845249	t k
-1.901731	t hh
-1.651853	t aa
-1.804821	t d
-2.759063	t sh
-2.980912	t th
-1.582972	t ae
-1.594710	t eh
-2.503791	t v
-1.901731	t y
-1.651853	t l
-1.913965	t ow
-1.725639	t t
-1.029898	t uw
-2.227584	t g
-2.554943	t uh
-1.855973	t p
-2.612935	t ch
-2.980912	t oy
-1.657784	uw sil
-1.461489	uw dh
-1.724731	uw ih
-1.104942	uw s
-1.565030	uw w
-1.938611	uw ao
-1.180663	uw z
-2.377943	uw iy
-1.565030	uw f
-1.803912	uw r
-2.201852	uw er
-1.548640	uw ah
-1.565030	uw jh
-1.803912	uw ey
-1.356754	uw n
-1.141154	uw m
-1.435935	uw b
-2.201852	uw ay
-1.657784	uw k
-1.565030	uw hh
-1.565030	uw aa
-1.346535	uw d
-1.938611	uw sh
-1.938611	uw th
-1.833875	uw ae
-1.657784	uw eh
-1.448524	uw v
-1.749554	uw y
-1.678973	uw l
-1.938611	uw ow
-1.255728	uw t
-2.678973	uw uw
-1.678973	uw g
-2.134905	uw aw
-1.289807	uw p
-1.938611	uw ch
-2.502882	uw oy
-2.108565	g sil
-2.205475	g dh
-1.360377	g ih
-2.205475	g s
-1.603415	g w
-1.904445	g ao
-1.276056	g z
-2.205475	g iy
-2.330414	g f
-0.739349	g r
-1.289021	g er
-1.001355	g ah
-2.029384	g jh
-1.962437	g ey
-2.108565	g n
-1.962437	g m
-1.904445	g b
-2.205475	g ay
-2.506505	g k
-2.330414	g hh
-1.216470	g aa
-2.029384	g d
-2.330414	g sh
-2.506505	g th
-1.631444	g ae
-1.263467	g eh
-1.528781	g y
-1.409595	g l
-1.194751	g ow
-1.853293	g t
-1.693592	g uw
-1.853293	g g
-2.205475	g aw
-1.693592	g uh
-2.108565	g p
-2.807535	g ch
-2.205475	g zh
-1.227433	aw s
-1.679731	aw w
-2.156852	aw ao
-1.980761	aw z
-1.855822	aw iy
-0.866817	aw er
-1.253762	aw ah
-1.612784	aw ey
-0.619033	aw n
-1.554792	aw m
-2.156852	aw ay
-2.457882	aw k
-1.679731	aw d
-1.980761	aw ae
-2.156852	aw eh
-1.679731	aw l
-2.156852	aw ow
-0.631807	aw t
-2.156852	aw g
-2.156852	aw p
-2.156852	aw oy
-0.658316	uh r
-2.029384	uh m
-0.728354	uh k
-0.421929	uh d
-1.289021	uh l
-1.216470	uh t
-1.631444	uh g
-1.853293	uh p
-1.853293	uh ch
-1.697967	p sil
-2.158697	p dh
-1.388664	p ih
-1.364752	p s
-1.908820	p w
-2.071547	p ao
-2.635819	p z
-1.405370	p iy
-2.413970	p f
-0.818474	p r
-1.095907	p er
-1.108619	p ah
-2.635819	p jh
-1.469487	p ey
-1.998997	p n
-2.033759	p m
-1.908820	p b
-1.607790	p ay
-2.209850	p k
-2.811910	p hh
-1.193862	p aa
-2.510880	p d
-2.510880	p th
-1.665782	p ae
-1.261682	p eh
-2.635819	p v
-1.681576	p y
-1.023035	p l
-1.594426	p ow
-1.544738	p t
-2.413970	p uw
-2.267842	p g
-2.112940	p aw
-1.908820	p uh
-1.936849	p p
-2.209850	p ch
-1.732729	p oy
-1.706504	ch sil
-2.308564	ch dh
-1.308564	ch ih
-1.530413	ch s
-2.007534	ch w
-2.007534	ch ao
-2.007534	ch z
-1.354322	ch iy
-1.706504	ch f
-2.609594	ch r
-0.928353	ch er
-0.946837	ch ah
-2.308564	ch jh
-1.147196	ch ey
-2.007534	ch n
-2.132473	ch m
-1.764496	ch b
-1.655352	ch ay
-1.655352	ch k
-2.007534	ch hh
-1.211654	ch aa
-1.910624	ch d
-2.308564	ch sh
-2.308564	ch th
-1.655352	ch ae
-1.433503	ch eh
-2.007534	ch v
-1.609594	ch y
-2.132473	ch l
-1.764496	ch ow
-1.495651	ch t
-1.530413	ch uw
-1.706504	ch g
-2.132473	ch p
-1.706504	ch ch
-2.132473	ch oy
-2.206826	oy dh
-1.206826	oy ih
-0.845098	oy s
-1.729705	oy ao
-1.060698	oy z
-1.729705	oy iy
-1.428675	oy ah
-1.604766	oy ey
-0.775462	oy n
-1.905796	oy m
-1.361728	oy b
-1.905796	oy ay
-1.428675	oy d
-1.604766	oy ae
-1.729705	oy eh
-1.060698	oy l
-1.604766	oy ow
-1.729705	oy g
-1.428675	oy p
-0.792392	zh sil
-1.315270	zh s
-0.588272	zh er
-0.792392	zh ah
-1.190332	zh m
-1.190332	zh hh
-1.315270	zh d
-1.190332	zh uw
\end\
