iARPA

\data\
ngram 1=	43

\1-grams:
-4.401814	<s>	0.000000
-1.234940	sil	0.000000
-1.712505	dh	0.000000
-1.309795	ih	0.000000
-1.340927	s	0.000000
-1.791686	w	0.000000
-1.803023	ao	0.000000
-1.501720	z	0.000000
-1.326998	iy	0.000000
-1.781157	f	0.000000
-1.325538	r	0.000000
-1.549029	er	0.000000
-1.121919	ah	0.000000
-1.535822	</s>	0.000000
-2.035391	jh	0.000000
-1.804667	ey	0.000000
-1.268754	n	0.000000
-1.574445	m	0.000000
-1.696806	b	0.000000
-1.792753	ay	0.000000
-1.449748	k	0.000000
-2.047706	ng	0.000000
-2.004743	hh	0.000000
-1.693818	aa	0.000000
-1.465552	d	0.000000
-2.051566	sh	0.000000
-2.199053	th	0.000000
-1.687904	ae	0.000000
-1.653626	eh	0.000000
-1.840713	v	0.000000
-1.997836	y	0.000000
-1.375894	l	0.000000
-1.896664	ow	0.000000
-1.250291	t	0.000000
-1.739528	uw	0.000000
-1.920371	g	0.000000
-2.276333	aw	0.000000
-2.388977	uh	0.000000
-1.602129	p	0.000000
-2.132301	ch	0.000000
-2.547508	oy	0.000000
-2.962481	zh	0.000000
-3.069375 <unk>
\end\
